<?xml version="1.0" encoding="UTF-8" standalone="yes"?>
<PMML xmlns="http://www.dmg.org/PMML-4_3" xmlns:data="http://jpmml.org/jpmml-model/InlineTable" version="4.3">
	<Header>
		<Application name="JPMML-SkLearn" version="1.5.19"/>
		<Timestamp>2019-12-10T12:15:51Z</Timestamp>
	</Header>
	<DataDictionary>
		<DataField name="median_house_value" optype="categorical" dataType="boolean">
			<Value value="false"/>
			<Value value="true"/>
		</DataField>
		<DataField name="longitude" optype="continuous" dataType="double">
			<Interval closure="closedClosed" leftMargin="-124.35" rightMargin="-114.47"/>
		</DataField>
		<DataField name="latitude" optype="continuous" dataType="double">
			<Interval closure="closedClosed" leftMargin="32.54" rightMargin="41.95"/>
		</DataField>
		<DataField name="housing_median_age" optype="continuous" dataType="double">
			<Interval closure="closedClosed" leftMargin="1.0" rightMargin="52.0"/>
		</DataField>
		<DataField name="total_rooms" optype="continuous" dataType="double">
			<Interval closure="closedClosed" leftMargin="2.0" rightMargin="39320.0"/>
		</DataField>
		<DataField name="total_bedrooms" optype="continuous" dataType="double">
			<Interval closure="closedClosed" leftMargin="1.0" rightMargin="6445.0"/>
		</DataField>
		<DataField name="population" optype="continuous" dataType="double">
			<Interval closure="closedClosed" leftMargin="3.0" rightMargin="35682.0"/>
		</DataField>
		<DataField name="households" optype="continuous" dataType="double">
			<Interval closure="closedClosed" leftMargin="1.0" rightMargin="6082.0"/>
		</DataField>
		<DataField name="median_income" optype="continuous" dataType="double">
			<Interval closure="closedClosed" leftMargin="0.4999" rightMargin="15.0001"/>
		</DataField>
		<DataField name="ocean_proximity" optype="categorical" dataType="string">
			<Value value="&lt;1H OCEAN"/>
			<Value value="INLAND"/>
			<Value value="ISLAND"/>
			<Value value="NEAR BAY"/>
			<Value value="NEAR OCEAN"/>
		</DataField>
	</DataDictionary>
	<TransformationDictionary/>
	<MiningModel functionName="classification">
		<MiningSchema>
			<MiningField name="median_house_value" usageType="target"/>
			<MiningField name="longitude" missingValueTreatment="asIs"/>
			<MiningField name="latitude" missingValueTreatment="asIs"/>
			<MiningField name="housing_median_age" missingValueTreatment="asIs"/>
			<MiningField name="total_rooms" missingValueTreatment="asIs"/>
			<MiningField name="total_bedrooms" missingValueTreatment="asIs"/>
			<MiningField name="population" missingValueTreatment="asIs"/>
			<MiningField name="households" missingValueTreatment="asIs"/>
			<MiningField name="median_income" missingValueTreatment="asIs"/>
			<MiningField name="ocean_proximity" missingValueTreatment="asIs"/>
		</MiningSchema>
		<ModelStats>
			<UnivariateStats field="longitude">
				<Counts totalFreq="16346" missingFreq="0" invalidFreq="0"/>
				<NumericInfo minimum="-124.35" maximum="-114.47" mean="-119.58051327541905" standardDeviation="2.005836266000149" median="-118.51" interQuartileRange="3.799999999999997"/>
			</UnivariateStats>
			<UnivariateStats field="latitude">
				<Counts totalFreq="16346" missingFreq="0" invalidFreq="0"/>
				<NumericInfo minimum="32.54" maximum="41.95" mean="35.64056894653126" standardDeviation="2.1361153381416353" median="34.26" interQuartileRange="3.789999999999999"/>
			</UnivariateStats>
			<UnivariateStats field="housing_median_age">
				<Counts totalFreq="16346" missingFreq="0" invalidFreq="0"/>
				<NumericInfo minimum="1.0" maximum="52.0" mean="28.615012847179738" standardDeviation="12.576787944408197" median="29.0" interQuartileRange="19.0"/>
			</UnivariateStats>
			<UnivariateStats field="total_rooms">
				<Counts totalFreq="16346" missingFreq="0" invalidFreq="0"/>
				<NumericInfo minimum="2.0" maximum="39320.0" mean="2626.2934662914477" standardDeviation="2153.240950588431" median="2125.0" interQuartileRange="1681.75"/>
			</UnivariateStats>
			<UnivariateStats field="total_bedrooms">
				<Counts totalFreq="16346" missingFreq="0" invalidFreq="0"/>
				<NumericInfo minimum="1.0" maximum="6445.0" mean="536.0577511317754" standardDeviation="417.4579188401889" median="434.0" interQuartileRange="350.75"/>
			</UnivariateStats>
			<UnivariateStats field="population">
				<Counts totalFreq="16346" missingFreq="0" invalidFreq="0"/>
				<NumericInfo minimum="3.0" maximum="35682.0" mean="1420.5899914352135" standardDeviation="1129.3421690817097" median="1165.0" interQuartileRange="933.0"/>
			</UnivariateStats>
			<UnivariateStats field="households">
				<Counts totalFreq="16346" missingFreq="0" invalidFreq="0"/>
				<NumericInfo minimum="1.0" maximum="6082.0" mean="497.6134834210204" standardDeviation="377.9858877447207" median="408.0" interQuartileRange="323.0"/>
			</UnivariateStats>
			<UnivariateStats field="median_income">
				<Counts totalFreq="16346" missingFreq="0" invalidFreq="0"/>
				<NumericInfo minimum="0.4999" maximum="15.0001" mean="3.8706968432644073" standardDeviation="1.897766647226461" median="3.53665" interQuartileRange="2.18545"/>
			</UnivariateStats>
			<UnivariateStats field="ocean_proximity">
				<Counts totalFreq="16346" missingFreq="0" invalidFreq="0"/>
				<DiscrStats>
					<Array type="string">"&lt;1H OCEAN" INLAND ISLAND "NEAR BAY" "NEAR OCEAN"</Array>
					<Array type="int">7231 5156 3 1842 2114</Array>
				</DiscrStats>
			</UnivariateStats>
		</ModelStats>
		<Segmentation multipleModelMethod="modelChain" x-missingPredictionTreatment="returnMissing">
			<Segment id="1">
				<True/>
				<MiningModel functionName="regression">
					<MiningSchema>
						<MiningField name="ocean_proximity"/>
						<MiningField name="median_income"/>
						<MiningField name="longitude"/>
						<MiningField name="latitude"/>
						<MiningField name="population"/>
						<MiningField name="households"/>
						<MiningField name="housing_median_age"/>
						<MiningField name="total_bedrooms"/>
						<MiningField name="total_rooms"/>
					</MiningSchema>
					<Output>
						<OutputField name="decisionFunction(true)" optype="continuous" dataType="double" isFinalResult="false"/>
						<OutputField name="transformedDecisionFunction(true)" optype="continuous" dataType="double" feature="transformedValue" isFinalResult="false">
							<Apply function="/">
								<Constant dataType="double">1.0</Constant>
								<Apply function="+">
									<Constant dataType="double">1.0</Constant>
									<Apply function="exp">
										<Apply function="*">
											<Constant dataType="double">-1.0</Constant>
											<FieldRef field="decisionFunction(true)"/>
										</Apply>
									</Apply>
								</Apply>
							</Apply>
						</OutputField>
					</Output>
					<Targets>
						<Target rescaleConstant="-0.31733109266847226" rescaleFactor="0.1"/>
					</Targets>
					<LocalTransformations>
						<DerivedField name="standard_scaler(longitude)" optype="continuous" dataType="double">
							<Apply function="/">
								<Apply function="-">
									<FieldRef field="longitude"/>
									<Constant dataType="double">-119.58051327541905</Constant>
								</Apply>
								<Constant dataType="double">2.005836266000149</Constant>
							</Apply>
						</DerivedField>
						<DerivedField name="standard_scaler(latitude)" optype="continuous" dataType="double">
							<Apply function="/">
								<Apply function="-">
									<FieldRef field="latitude"/>
									<Constant dataType="double">35.64056894653126</Constant>
								</Apply>
								<Constant dataType="double">2.1361153381416353</Constant>
							</Apply>
						</DerivedField>
						<DerivedField name="standard_scaler(housing_median_age)" optype="continuous" dataType="double">
							<Apply function="/">
								<Apply function="-">
									<FieldRef field="housing_median_age"/>
									<Constant dataType="double">28.615012847179738</Constant>
								</Apply>
								<Constant dataType="double">12.576787944408197</Constant>
							</Apply>
						</DerivedField>
						<DerivedField name="standard_scaler(total_rooms)" optype="continuous" dataType="double">
							<Apply function="/">
								<Apply function="-">
									<FieldRef field="total_rooms"/>
									<Constant dataType="double">2626.2934662914477</Constant>
								</Apply>
								<Constant dataType="double">2153.240950588431</Constant>
							</Apply>
						</DerivedField>
						<DerivedField name="standard_scaler(total_bedrooms)" optype="continuous" dataType="double">
							<Apply function="/">
								<Apply function="-">
									<FieldRef field="total_bedrooms"/>
									<Constant dataType="double">536.0577511317754</Constant>
								</Apply>
								<Constant dataType="double">417.4579188401889</Constant>
							</Apply>
						</DerivedField>
						<DerivedField name="standard_scaler(population)" optype="continuous" dataType="double">
							<Apply function="/">
								<Apply function="-">
									<FieldRef field="population"/>
									<Constant dataType="double">1420.5899914352135</Constant>
								</Apply>
								<Constant dataType="double">1129.3421690817097</Constant>
							</Apply>
						</DerivedField>
						<DerivedField name="standard_scaler(households)" optype="continuous" dataType="double">
							<Apply function="/">
								<Apply function="-">
									<FieldRef field="households"/>
									<Constant dataType="double">497.6134834210204</Constant>
								</Apply>
								<Constant dataType="double">377.9858877447207</Constant>
							</Apply>
						</DerivedField>
						<DerivedField name="standard_scaler(median_income)" optype="continuous" dataType="double">
							<Apply function="/">
								<Apply function="-">
									<FieldRef field="median_income"/>
									<Constant dataType="double">3.8706968432644073</Constant>
								</Apply>
								<Constant dataType="double">1.897766647226461</Constant>
							</Apply>
						</DerivedField>
						<DerivedField name="float(standard_scaler(longitude))" optype="continuous" dataType="float">
							<FieldRef field="standard_scaler(longitude)"/>
						</DerivedField>
						<DerivedField name="float(standard_scaler(latitude))" optype="continuous" dataType="float">
							<FieldRef field="standard_scaler(latitude)"/>
						</DerivedField>
						<DerivedField name="float(standard_scaler(housing_median_age))" optype="continuous" dataType="float">
							<FieldRef field="standard_scaler(housing_median_age)"/>
						</DerivedField>
						<DerivedField name="float(standard_scaler(total_rooms))" optype="continuous" dataType="float">
							<FieldRef field="standard_scaler(total_rooms)"/>
						</DerivedField>
						<DerivedField name="float(standard_scaler(total_bedrooms))" optype="continuous" dataType="float">
							<FieldRef field="standard_scaler(total_bedrooms)"/>
						</DerivedField>
						<DerivedField name="float(standard_scaler(population))" optype="continuous" dataType="float">
							<FieldRef field="standard_scaler(population)"/>
						</DerivedField>
						<DerivedField name="float(standard_scaler(households))" optype="continuous" dataType="float">
							<FieldRef field="standard_scaler(households)"/>
						</DerivedField>
						<DerivedField name="float(standard_scaler(median_income))" optype="continuous" dataType="float">
							<FieldRef field="standard_scaler(median_income)"/>
						</DerivedField>
						<DerivedField name="double(float(standard_scaler(median_income)))" optype="continuous" dataType="double">
							<FieldRef field="float(standard_scaler(median_income))"/>
						</DerivedField>
						<DerivedField name="double(float(standard_scaler(longitude)))" optype="continuous" dataType="double">
							<FieldRef field="float(standard_scaler(longitude))"/>
						</DerivedField>
						<DerivedField name="double(float(standard_scaler(latitude)))" optype="continuous" dataType="double">
							<FieldRef field="float(standard_scaler(latitude))"/>
						</DerivedField>
						<DerivedField name="double(float(standard_scaler(population)))" optype="continuous" dataType="double">
							<FieldRef field="float(standard_scaler(population))"/>
						</DerivedField>
						<DerivedField name="double(float(standard_scaler(households)))" optype="continuous" dataType="double">
							<FieldRef field="float(standard_scaler(households))"/>
						</DerivedField>
						<DerivedField name="double(float(standard_scaler(housing_median_age)))" optype="continuous" dataType="double">
							<FieldRef field="float(standard_scaler(housing_median_age))"/>
						</DerivedField>
						<DerivedField name="double(float(standard_scaler(total_bedrooms)))" optype="continuous" dataType="double">
							<FieldRef field="float(standard_scaler(total_bedrooms))"/>
						</DerivedField>
						<DerivedField name="double(float(standard_scaler(total_rooms)))" optype="continuous" dataType="double">
							<FieldRef field="float(standard_scaler(total_rooms))"/>
						</DerivedField>
					</LocalTransformations>
					<Segmentation multipleModelMethod="sum">
						<Segment id="1">
							<True/>
							<TreeModel functionName="regression" missingValueStrategy="nullPrediction" noTrueChildStrategy="returnLastPrediction">
								<MiningSchema>
									<MiningField name="ocean_proximity"/>
									<MiningField name="double(float(standard_scaler(median_income)))"/>
								</MiningSchema>
								<Node score="2.253528966686014">
									<True/>
									<Node score="0.23114663732142518">
										<SimplePredicate field="double(float(standard_scaler(median_income)))" operator="lessOrEqual" value="0.13123486191034317"/>
										<Node score="-1.393831274700341">
											<SimplePredicate field="ocean_proximity" operator="equal" value="INLAND"/>
											<Node score="-1.65413855425217">
												<SimplePredicate field="double(float(standard_scaler(median_income)))" operator="lessOrEqual" value="-0.33138786256313324"/>
											</Node>
										</Node>
										<Node score="-0.8758201667765144">
											<SimplePredicate field="double(float(standard_scaler(median_income)))" operator="lessOrEqual" value="-0.5718547403812408"/>
										</Node>
									</Node>
									<Node score="1.4245919133596716">
										<SimplePredicate field="ocean_proximity" operator="equal" value="INLAND"/>
										<Node score="-0.734067698305414">
											<SimplePredicate field="double(float(standard_scaler(median_income)))" operator="lessOrEqual" value="0.9812866747379303"/>
										</Node>
									</Node>
									<Node score="1.178798980354455">
										<SimplePredicate field="double(float(standard_scaler(median_income)))" operator="lessOrEqual" value="0.7714874446392059"/>
									</Node>
								</Node>
							</TreeModel>
						</Segment>
						<Segment id="2">
							<True/>
							<TreeModel functionName="regression" missingValueStrategy="nullPrediction" noTrueChildStrategy="returnLastPrediction">
								<MiningSchema>
									<MiningField name="ocean_proximity"/>
									<MiningField name="double(float(standard_scaler(median_income)))"/>
									<MiningField name="double(float(standard_scaler(longitude)))"/>
								</MiningSchema>
								<Node score="1.8868507322857466">
									<True/>
									<Node score="-0.8121715456341644">
										<SimplePredicate field="double(float(standard_scaler(median_income)))" operator="lessOrEqual" value="0.10565216466784477"/>
										<Node score="-1.3024905848848705">
											<SimplePredicate field="ocean_proximity" operator="equal" value="INLAND"/>
											<Node score="-1.5406829851004304">
												<SimplePredicate field="double(float(standard_scaler(median_income)))" operator="lessOrEqual" value="-0.33138786256313324"/>
											</Node>
										</Node>
										<Node score="0.24178429527351827">
											<SimplePredicate field="double(float(standard_scaler(longitude)))" operator="lessOrEqual" value="0.6458718776702881"/>
										</Node>
									</Node>
									<Node score="1.2524615798579943">
										<SimplePredicate field="ocean_proximity" operator="equal" value="INLAND"/>
										<Node score="-0.6926105167956356">
											<SimplePredicate field="double(float(standard_scaler(median_income)))" operator="lessOrEqual" value="0.9755167365074158"/>
										</Node>
									</Node>
									<Node score="0.9161340925631825">
										<SimplePredicate field="double(float(standard_scaler(median_income)))" operator="lessOrEqual" value="0.6151984930038452"/>
									</Node>
								</Node>
							</TreeModel>
						</Segment>
						<Segment id="3">
							<True/>
							<TreeModel functionName="regression" missingValueStrategy="nullPrediction" noTrueChildStrategy="returnLastPrediction">
								<MiningSchema>
									<MiningField name="ocean_proximity"/>
									<MiningField name="double(float(standard_scaler(median_income)))"/>
								</MiningSchema>
								<Node score="1.7905893362166874">
									<True/>
									<Node score="0.44397746919279785">
										<SimplePredicate field="double(float(standard_scaler(median_income)))" operator="lessOrEqual" value="0.366616815328598"/>
										<Node score="-1.1405470319182731">
											<SimplePredicate field="ocean_proximity" operator="equal" value="INLAND"/>
											<Node score="-1.4492930491647726">
												<SimplePredicate field="double(float(standard_scaler(median_income)))" operator="lessOrEqual" value="-0.33138786256313324"/>
											</Node>
										</Node>
										<Node score="-0.6412076595917109">
											<SimplePredicate field="double(float(standard_scaler(median_income)))" operator="lessOrEqual" value="-0.40276123583316803"/>
										</Node>
									</Node>
									<Node score="1.1249347410909192">
										<SimplePredicate field="ocean_proximity" operator="equal" value="INLAND"/>
										<Node score="-0.38785666476820163">
											<SimplePredicate field="double(float(standard_scaler(median_income)))" operator="lessOrEqual" value="0.9812866747379303"/>
										</Node>
									</Node>
									<Node score="1.0858870342614182">
										<SimplePredicate field="double(float(standard_scaler(median_income)))" operator="lessOrEqual" value="0.7714874446392059"/>
									</Node>
								</Node>
							</TreeModel>
						</Segment>
						<Segment id="4">
							<True/>
							<TreeModel functionName="regression" missingValueStrategy="nullPrediction" noTrueChildStrategy="returnLastPrediction">
								<MiningSchema>
									<MiningField name="ocean_proximity"/>
									<MiningField name="double(float(standard_scaler(median_income)))"/>
									<MiningField name="double(float(standard_scaler(longitude)))"/>
									<MiningField name="double(float(standard_scaler(latitude)))"/>
								</MiningSchema>
								<Node score="1.634746069245913">
									<True/>
									<Node score="-0.7268119392419533">
										<SimplePredicate field="double(float(standard_scaler(median_income)))" operator="lessOrEqual" value="0.10565216466784477"/>
										<Node score="-1.3683996945479544">
											<SimplePredicate field="ocean_proximity" operator="equal" value="INLAND"/>
											<Node score="-1.1425608254129465">
												<SimplePredicate field="double(float(standard_scaler(latitude)))" operator="lessOrEqual" value="-0.672046571969986"/>
											</Node>
										</Node>
										<Node score="0.23210912483244656">
											<SimplePredicate field="double(float(standard_scaler(longitude)))" operator="lessOrEqual" value="0.6458718776702881"/>
										</Node>
									</Node>
									<Node score="0.7421589118612346">
										<SimplePredicate field="ocean_proximity" operator="equal" value="INLAND"/>
										<Node score="-0.7014630298098142">
											<SimplePredicate field="double(float(standard_scaler(median_income)))" operator="lessOrEqual" value="0.7637941837310791"/>
										</Node>
									</Node>
									<Node score="0.8256495456490326">
										<SimplePredicate field="double(float(standard_scaler(median_income)))" operator="lessOrEqual" value="0.761054128408432"/>
									</Node>
								</Node>
							</TreeModel>
						</Segment>
						<Segment id="5">
							<True/>
							<TreeModel functionName="regression" missingValueStrategy="nullPrediction" noTrueChildStrategy="returnLastPrediction">
								<MiningSchema>
									<MiningField name="ocean_proximity"/>
									<MiningField name="double(float(standard_scaler(median_income)))"/>
									<MiningField name="double(float(standard_scaler(longitude)))"/>
								</MiningSchema>
								<Node score="-0.06566715487050172">
									<True/>
									<Node score="0.2728460412964207">
										<SimplePredicate field="double(float(standard_scaler(median_income)))" operator="lessOrEqual" value="0.366616815328598"/>
										<Node score="-0.9915566642464635">
											<SimplePredicate field="ocean_proximity" operator="equal" value="INLAND"/>
											<Node score="-1.3128982612289921">
												<SimplePredicate field="double(float(standard_scaler(median_income)))" operator="lessOrEqual" value="-0.33138786256313324"/>
											</Node>
										</Node>
										<Node score="-0.756282473243679">
											<SimplePredicate field="double(float(standard_scaler(median_income)))" operator="lessOrEqual" value="-0.6241003572940826"/>
										</Node>
									</Node>
									<Node score="1.1914619497985013">
										<SimplePredicate field="ocean_proximity" operator="equal" value="INLAND"/>
										<Node score="-0.2292194033832128">
											<SimplePredicate field="double(float(standard_scaler(median_income)))" operator="lessOrEqual" value="1.1956439018249512"/>
										</Node>
									</Node>
									<Node score="1.3622083006826695">
										<SimplePredicate field="double(float(standard_scaler(longitude)))" operator="lessOrEqual" value="1.1992570757865906"/>
									</Node>
								</Node>
							</TreeModel>
						</Segment>
						<Segment id="6">
							<True/>
							<TreeModel functionName="regression" missingValueStrategy="nullPrediction" noTrueChildStrategy="returnLastPrediction">
								<MiningSchema>
									<MiningField name="ocean_proximity"/>
									<MiningField name="double(float(standard_scaler(median_income)))"/>
									<MiningField name="double(float(standard_scaler(longitude)))"/>
									<MiningField name="double(float(standard_scaler(population)))"/>
								</MiningSchema>
								<Node score="-0.3819680247452666">
									<True/>
									<Node score="-0.6585852884622388">
										<SimplePredicate field="double(float(standard_scaler(median_income)))" operator="lessOrEqual" value="0.09619368240237236"/>
										<Node score="-1.2210183639717385">
											<SimplePredicate field="ocean_proximity" operator="equal" value="INLAND"/>
											<Node score="-0.803519417653218">
												<SimplePredicate field="double(float(standard_scaler(population)))" operator="lessOrEqual" value="-0.9918074607849121"/>
											</Node>
										</Node>
										<Node score="0.20965390584664806">
											<SimplePredicate field="double(float(standard_scaler(longitude)))" operator="lessOrEqual" value="0.6458718776702881"/>
										</Node>
									</Node>
									<Node score="0.8398676862716492">
										<SimplePredicate field="ocean_proximity" operator="equal" value="INLAND"/>
										<Node score="-0.5196270373019068">
											<SimplePredicate field="double(float(standard_scaler(median_income)))" operator="lessOrEqual" value="0.9524369835853577"/>
										</Node>
									</Node>
									<Node score="1.117975254384521">
										<SimplePredicate field="double(float(standard_scaler(longitude)))" operator="lessOrEqual" value="1.1992570757865906"/>
									</Node>
								</Node>
							</TreeModel>
						</Segment>
						<Segment id="7">
							<True/>
							<TreeModel functionName="regression" missingValueStrategy="nullPrediction" noTrueChildStrategy="returnLastPrediction">
								<MiningSchema>
									<MiningField name="ocean_proximity"/>
									<MiningField name="double(float(standard_scaler(median_income)))"/>
									<MiningField name="double(float(standard_scaler(longitude)))"/>
								</MiningSchema>
								<Node score="0.18722485822079837">
									<True/>
									<Node score="-0.4897259402942229">
										<SimplePredicate field="double(float(standard_scaler(median_income)))" operator="lessOrEqual" value="0.5416383147239685"/>
										<Node score="-0.6414849569428098">
											<SimplePredicate field="ocean_proximity" operator="equal" value="INLAND"/>
											<Node score="-1.1567168603441622">
												<SimplePredicate field="double(float(standard_scaler(median_income)))" operator="lessOrEqual" value="0.033699167892336845"/>
											</Node>
										</Node>
										<Node score="0.3884623866649023">
											<SimplePredicate field="double(float(standard_scaler(longitude)))" operator="lessOrEqual" value="0.6359009742736816"/>
										</Node>
									</Node>
									<Node score="1.0145803123217285">
										<SimplePredicate field="ocean_proximity" operator="equal" value="INLAND"/>
										<Node score="-0.07496920080109448">
											<SimplePredicate field="double(float(standard_scaler(median_income)))" operator="lessOrEqual" value="1.1956439018249512"/>
										</Node>
									</Node>
									<Node score="1.3090473961397096">
										<SimplePredicate field="double(float(standard_scaler(longitude)))" operator="lessOrEqual" value="1.1992570757865906"/>
									</Node>
								</Node>
							</TreeModel>
						</Segment>
						<Segment id="8">
							<True/>
							<TreeModel functionName="regression" missingValueStrategy="nullPrediction" noTrueChildStrategy="returnLastPrediction">
								<MiningSchema>
									<MiningField name="ocean_proximity"/>
									<MiningField name="double(float(standard_scaler(median_income)))"/>
									<MiningField name="double(float(standard_scaler(longitude)))"/>
									<MiningField name="double(float(standard_scaler(households)))"/>
								</MiningSchema>
								<Node score="-0.5097196053884774">
									<True/>
									<Node score="-0.04157175837961394">
										<SimplePredicate field="double(float(standard_scaler(median_income)))" operator="lessOrEqual" value="-0.1705145612359047"/>
										<Node score="-1.149462292046855">
											<SimplePredicate field="ocean_proximity" operator="equal" value="INLAND"/>
											<Node score="0.353282727740095">
												<SimplePredicate field="double(float(standard_scaler(households)))" operator="lessOrEqual" value="-1.2847397327423096"/>
											</Node>
										</Node>
										<Node score="-0.7717825743700002">
											<SimplePredicate field="double(float(standard_scaler(median_income)))" operator="lessOrEqual" value="-0.7157607078552246"/>
										</Node>
									</Node>
									<Node score="0.547968540323152">
										<SimplePredicate field="ocean_proximity" operator="equal" value="INLAND"/>
										<Node score="-0.646674199388852">
											<SimplePredicate field="double(float(standard_scaler(median_income)))" operator="lessOrEqual" value="0.7637941837310791"/>
										</Node>
									</Node>
									<Node score="0.8727083531223784">
										<SimplePredicate field="double(float(standard_scaler(longitude)))" operator="lessOrEqual" value="1.1992570757865906"/>
									</Node>
								</Node>
							</TreeModel>
						</Segment>
						<Segment id="9">
							<True/>
							<TreeModel functionName="regression" missingValueStrategy="nullPrediction" noTrueChildStrategy="returnLastPrediction">
								<MiningSchema>
									<MiningField name="ocean_proximity"/>
									<MiningField name="double(float(standard_scaler(median_income)))"/>
									<MiningField name="double(float(standard_scaler(latitude)))"/>
									<MiningField name="double(float(standard_scaler(housing_median_age)))"/>
								</MiningSchema>
								<Node score="1.3460519935919768">
									<True/>
									<Node score="0.3074192712812711">
										<SimplePredicate field="double(float(standard_scaler(median_income)))" operator="lessOrEqual" value="0.5581313967704773"/>
										<Node score="-1.2462687380226491">
											<SimplePredicate field="double(float(standard_scaler(median_income)))" operator="lessOrEqual" value="-0.40276123583316803"/>
											<Node score="-0.5694032654989976">
												<SimplePredicate field="double(float(standard_scaler(latitude)))" operator="lessOrEqual" value="1.0647510290145874"/>
											</Node>
										</Node>
										<Node score="-0.7475547644770766">
											<SimplePredicate field="ocean_proximity" operator="equal" value="INLAND"/>
										</Node>
									</Node>
									<Node score="1.1615516956818066">
										<SimplePredicate field="ocean_proximity" operator="equal" value="INLAND"/>
										<Node score="0.035383718287802186">
											<SimplePredicate field="double(float(standard_scaler(housing_median_age)))" operator="lessOrEqual" value="-0.08865640871226788"/>
										</Node>
									</Node>
									<Node score="0.8063108546032363">
										<SimplePredicate field="double(float(standard_scaler(median_income)))" operator="lessOrEqual" value="0.9445856511592865"/>
									</Node>
								</Node>
							</TreeModel>
						</Segment>
						<Segment id="10">
							<True/>
							<TreeModel functionName="regression" missingValueStrategy="nullPrediction" noTrueChildStrategy="returnLastPrediction">
								<MiningSchema>
									<MiningField name="ocean_proximity"/>
									<MiningField name="double(float(standard_scaler(median_income)))"/>
									<MiningField name="double(float(standard_scaler(longitude)))"/>
									<MiningField name="double(float(standard_scaler(population)))"/>
									<MiningField name="double(float(standard_scaler(housing_median_age)))"/>
								</MiningSchema>
								<Node score="1.216435324732416">
									<True/>
									<Node score="-0.6521059261866532">
										<SimplePredicate field="double(float(standard_scaler(median_income)))" operator="lessOrEqual" value="-0.12754299491643906"/>
										<Node score="-1.0980735636885843">
											<SimplePredicate field="ocean_proximity" operator="equal" value="INLAND"/>
											<Node score="-0.6292124571941087">
												<SimplePredicate field="double(float(standard_scaler(population)))" operator="lessOrEqual" value="-1.0139442682266235"/>
											</Node>
										</Node>
										<Node score="0.08130229849082614">
											<SimplePredicate field="double(float(standard_scaler(longitude)))" operator="lessOrEqual" value="0.6458718776702881"/>
										</Node>
									</Node>
									<Node score="1.0038898808416443">
										<SimplePredicate field="double(float(standard_scaler(median_income)))" operator="lessOrEqual" value="0.7644528746604919"/>
										<Node score="0.0049053030476228325">
											<SimplePredicate field="double(float(standard_scaler(housing_median_age)))" operator="lessOrEqual" value="0.7859707176685333"/>
										</Node>
									</Node>
									<Node score="0.4687718798135749">
										<SimplePredicate field="ocean_proximity" operator="equal" value="INLAND"/>
									</Node>
								</Node>
							</TreeModel>
						</Segment>
						<Segment id="11">
							<True/>
							<TreeModel functionName="regression" missingValueStrategy="nullPrediction" noTrueChildStrategy="returnLastPrediction">
								<MiningSchema>
									<MiningField name="ocean_proximity"/>
									<MiningField name="double(float(standard_scaler(median_income)))"/>
									<MiningField name="double(float(standard_scaler(longitude)))"/>
									<MiningField name="double(float(standard_scaler(latitude)))"/>
									<MiningField name="double(float(standard_scaler(total_bedrooms)))"/>
								</MiningSchema>
								<Node score="1.141596687550509">
									<True/>
									<Node score="-0.4627452290848791">
										<SimplePredicate field="double(float(standard_scaler(median_income)))" operator="lessOrEqual" value="0.38616611063480377"/>
										<Node score="-1.0407817870928742">
											<SimplePredicate field="ocean_proximity" operator="equal" value="INLAND"/>
											<Node score="-0.6386668128627578">
												<SimplePredicate field="double(float(standard_scaler(latitude)))" operator="lessOrEqual" value="-0.672046571969986"/>
											</Node>
										</Node>
										<Node score="0.26826578868641593">
											<SimplePredicate field="double(float(standard_scaler(longitude)))" operator="lessOrEqual" value="0.6458718776702881"/>
										</Node>
									</Node>
									<Node score="-0.5418728467488431">
										<SimplePredicate field="double(float(standard_scaler(median_income)))" operator="lessOrEqual" value="0.9059613049030304"/>
										<Node score="0.5599021710866275">
											<SimplePredicate field="double(float(standard_scaler(longitude)))" operator="lessOrEqual" value="0.9749116897583008"/>
										</Node>
									</Node>
									<Node score="-0.4253480267423371">
										<SimplePredicate field="double(float(standard_scaler(total_bedrooms)))" operator="lessOrEqual" value="-1.1954683661460876"/>
									</Node>
								</Node>
							</TreeModel>
						</Segment>
						<Segment id="12">
							<True/>
							<TreeModel functionName="regression" missingValueStrategy="nullPrediction" noTrueChildStrategy="returnLastPrediction">
								<MiningSchema>
									<MiningField name="ocean_proximity"/>
									<MiningField name="double(float(standard_scaler(median_income)))"/>
									<MiningField name="double(float(standard_scaler(longitude)))"/>
									<MiningField name="double(float(standard_scaler(latitude)))"/>
									<MiningField name="double(float(standard_scaler(households)))"/>
								</MiningSchema>
								<Node score="0.13366356748683042">
									<True/>
									<Node score="-1.091531506898499">
										<SimplePredicate field="double(float(standard_scaler(median_income)))" operator="lessOrEqual" value="-0.1705145612359047"/>
										<Node score="-0.0688486172714461">
											<SimplePredicate field="double(float(standard_scaler(median_income)))" operator="lessOrEqual" value="-0.7168672978878021"/>
											<Node score="-0.863459182923029">
												<SimplePredicate field="double(float(standard_scaler(households)))" operator="lessOrEqual" value="0.9494706690311432"/>
											</Node>
										</Node>
										<Node score="-0.053859164478736135">
											<SimplePredicate field="double(float(standard_scaler(latitude)))" operator="lessOrEqual" value="1.0647510290145874"/>
										</Node>
									</Node>
									<Node score="0.7441538523409162">
										<SimplePredicate field="ocean_proximity" operator="equal" value="INLAND"/>
										<Node score="-0.42844289418430564">
											<SimplePredicate field="double(float(standard_scaler(median_income)))" operator="lessOrEqual" value="1.1956439018249512"/>
										</Node>
									</Node>
									<Node score="0.817024618319785">
										<SimplePredicate field="double(float(standard_scaler(longitude)))" operator="lessOrEqual" value="0.7356100082397461"/>
									</Node>
								</Node>
							</TreeModel>
						</Segment>
						<Segment id="13">
							<True/>
							<TreeModel functionName="regression" missingValueStrategy="nullPrediction" noTrueChildStrategy="returnLastPrediction">
								<MiningSchema>
									<MiningField name="ocean_proximity"/>
									<MiningField name="double(float(standard_scaler(median_income)))"/>
									<MiningField name="double(float(standard_scaler(longitude)))"/>
									<MiningField name="double(float(standard_scaler(households)))"/>
									<MiningField name="double(float(standard_scaler(housing_median_age)))"/>
								</MiningSchema>
								<Node score="-0.1935903222575668">
									<True/>
									<Node score="1.0389920332622555">
										<SimplePredicate field="double(float(standard_scaler(median_income)))" operator="lessOrEqual" value="0.5830027461051941"/>
										<Node score="0.02350040902588475">
											<SimplePredicate field="double(float(standard_scaler(median_income)))" operator="lessOrEqual" value="-0.5052501559257507"/>
											<Node score="-0.6937264646834794">
												<SimplePredicate field="double(float(standard_scaler(households)))" operator="lessOrEqual" value="0.9124322533607483"/>
											</Node>
										</Node>
										<Node score="-0.08176882029000204">
											<SimplePredicate field="double(float(standard_scaler(housing_median_age)))" operator="lessOrEqual" value="1.5015747547149658"/>
										</Node>
									</Node>
									<Node score="0.9377127227839052">
										<SimplePredicate field="ocean_proximity" operator="equal" value="INLAND"/>
										<Node score="-0.04021353617375863">
											<SimplePredicate field="double(float(standard_scaler(housing_median_age)))" operator="lessOrEqual" value="-0.08865640871226788"/>
										</Node>
									</Node>
									<Node score="1.0266220997739384">
										<SimplePredicate field="double(float(standard_scaler(longitude)))" operator="lessOrEqual" value="1.2491115927696228"/>
									</Node>
								</Node>
							</TreeModel>
						</Segment>
						<Segment id="14">
							<True/>
							<TreeModel functionName="regression" missingValueStrategy="nullPrediction" noTrueChildStrategy="returnLastPrediction">
								<MiningSchema>
									<MiningField name="ocean_proximity"/>
									<MiningField name="double(float(standard_scaler(median_income)))"/>
									<MiningField name="double(float(standard_scaler(longitude)))"/>
									<MiningField name="double(float(standard_scaler(latitude)))"/>
									<MiningField name="double(float(standard_scaler(total_rooms)))"/>
								</MiningSchema>
								<Node score="1.0508277561054737">
									<True/>
									<Node score="-1.0498706222116774">
										<SimplePredicate field="double(float(standard_scaler(median_income)))" operator="lessOrEqual" value="0.2287178784608841"/>
										<Node score="-0.2387439304932993">
											<SimplePredicate field="double(float(standard_scaler(latitude)))" operator="lessOrEqual" value="1.0694324374198914"/>
											<Node score="1.6511623475319004">
												<SimplePredicate field="double(float(standard_scaler(longitude)))" operator="lessOrEqual" value="-1.3582797646522522"/>
											</Node>
										</Node>
										<Node score="-0.9668532693528075">
											<SimplePredicate field="ocean_proximity" operator="equal" value="INLAND"/>
										</Node>
									</Node>
									<Node score="-0.5537298642534904">
										<SimplePredicate field="double(float(standard_scaler(median_income)))" operator="lessOrEqual" value="0.9133383929729462"/>
										<Node score="0.39320300904166844">
											<SimplePredicate field="double(float(standard_scaler(longitude)))" operator="lessOrEqual" value="0.9749116897583008"/>
										</Node>
									</Node>
									<Node score="-0.08056857162492045">
										<SimplePredicate field="double(float(standard_scaler(total_rooms)))" operator="lessOrEqual" value="-1.0039719343185425"/>
									</Node>
								</Node>
							</TreeModel>
						</Segment>
						<Segment id="15">
							<True/>
							<TreeModel functionName="regression" missingValueStrategy="nullPrediction" noTrueChildStrategy="returnLastPrediction">
								<MiningSchema>
									<MiningField name="ocean_proximity"/>
									<MiningField name="double(float(standard_scaler(median_income)))"/>
									<MiningField name="double(float(standard_scaler(longitude)))"/>
									<MiningField name="double(float(standard_scaler(housing_median_age)))"/>
									<MiningField name="double(float(standard_scaler(total_bedrooms)))"/>
								</MiningSchema>
								<Node score="-0.5536239577560087">
									<True/>
									<Node score="0.34062402527341973">
										<SimplePredicate field="double(float(standard_scaler(median_income)))" operator="lessOrEqual" value="-0.1705145612359047"/>
										<Node score="0.20942693127841153">
											<SimplePredicate field="double(float(standard_scaler(total_bedrooms)))" operator="lessOrEqual" value="0.25258174538612366"/>
											<Node score="-0.6165902525778513">
												<SimplePredicate field="double(float(standard_scaler(housing_median_age)))" operator="lessOrEqual" value="1.819620966911316"/>
											</Node>
										</Node>
										<Node score="-0.9584248543526374">
											<SimplePredicate field="ocean_proximity" operator="equal" value="INLAND"/>
										</Node>
									</Node>
									<Node score="0.9668549307732672">
										<SimplePredicate field="ocean_proximity" operator="equal" value="INLAND"/>
										<Node score="-0.3786988110600893">
											<SimplePredicate field="double(float(standard_scaler(housing_median_age)))" operator="lessOrEqual" value="0.7859707176685333"/>
										</Node>
									</Node>
									<Node score="0.5798986859960658">
										<SimplePredicate field="double(float(standard_scaler(longitude)))" operator="lessOrEqual" value="1.1992570757865906"/>
									</Node>
								</Node>
							</TreeModel>
						</Segment>
						<Segment id="16">
							<True/>
							<TreeModel functionName="regression" missingValueStrategy="nullPrediction" noTrueChildStrategy="returnLastPrediction">
								<MiningSchema>
									<MiningField name="ocean_proximity"/>
									<MiningField name="double(float(standard_scaler(median_income)))"/>
									<MiningField name="double(float(standard_scaler(longitude)))"/>
									<MiningField name="double(float(standard_scaler(households)))"/>
								</MiningSchema>
								<Node score="1.0984835667898873">
									<True/>
									<Node score="-0.3737317846469902">
										<SimplePredicate field="double(float(standard_scaler(median_income)))" operator="lessOrEqual" value="0.5830027461051941"/>
										<Node score="-1.0068453072168035">
											<SimplePredicate field="ocean_proximity" operator="equal" value="INLAND"/>
											<Node score="-0.7129446202547256">
												<SimplePredicate field="double(float(standard_scaler(longitude)))" operator="lessOrEqual" value="0.935028076171875"/>
											</Node>
										</Node>
										<Node score="0.28484561547010895">
											<SimplePredicate field="double(float(standard_scaler(longitude)))" operator="lessOrEqual" value="0.6508573293685913"/>
										</Node>
									</Node>
									<Node score="-0.5736105132138343">
										<SimplePredicate field="double(float(standard_scaler(median_income)))" operator="lessOrEqual" value="1.1614985466003418"/>
										<Node score="0.5396744580365953">
											<SimplePredicate field="double(float(standard_scaler(longitude)))" operator="lessOrEqual" value="1.1693443655967712"/>
										</Node>
									</Node>
									<Node score="-0.3629651874335283">
										<SimplePredicate field="double(float(standard_scaler(households)))" operator="lessOrEqual" value="-1.2146312594413757"/>
									</Node>
								</Node>
							</TreeModel>
						</Segment>
						<Segment id="17">
							<True/>
							<TreeModel functionName="regression" missingValueStrategy="nullPrediction" noTrueChildStrategy="returnLastPrediction">
								<MiningSchema>
									<MiningField name="ocean_proximity"/>
									<MiningField name="double(float(standard_scaler(median_income)))"/>
									<MiningField name="double(float(standard_scaler(longitude)))"/>
									<MiningField name="double(float(standard_scaler(housing_median_age)))"/>
								</MiningSchema>
								<Node score="-0.5916008649394572">
									<True/>
									<Node score="-0.5241359549308764">
										<SimplePredicate field="double(float(standard_scaler(median_income)))" operator="lessOrEqual" value="-0.40276123583316803"/>
										<Node score="-1.4533125497341932">
											<SimplePredicate field="double(float(standard_scaler(longitude)))" operator="lessOrEqual" value="-1.6723632216453552"/>
											<Node score="-1.1230879185351446">
												<SimplePredicate field="ocean_proximity" operator="equal" value="INLAND"/>
											</Node>
										</Node>
										<Node score="0.1637361518069029">
											<SimplePredicate field="ocean_proximity" operator="equal" value="NEAR OCEAN"/>
										</Node>
									</Node>
									<Node score="0.8056194349021599">
										<SimplePredicate field="ocean_proximity" operator="equal" value="INLAND"/>
										<Node score="-0.428021944432296">
											<SimplePredicate field="double(float(standard_scaler(housing_median_age)))" operator="lessOrEqual" value="0.7859707176685333"/>
										</Node>
									</Node>
									<Node score="0.46482503896083055">
										<SimplePredicate field="double(float(standard_scaler(longitude)))" operator="lessOrEqual" value="1.1992570757865906"/>
									</Node>
								</Node>
							</TreeModel>
						</Segment>
						<Segment id="18">
							<True/>
							<TreeModel functionName="regression" missingValueStrategy="nullPrediction" noTrueChildStrategy="returnLastPrediction">
								<MiningSchema>
									<MiningField name="ocean_proximity"/>
									<MiningField name="double(float(standard_scaler(median_income)))"/>
									<MiningField name="double(float(standard_scaler(longitude)))"/>
									<MiningField name="double(float(standard_scaler(latitude)))"/>
									<MiningField name="double(float(standard_scaler(total_rooms)))"/>
								</MiningSchema>
								<Node score="0.8780473652828423">
									<True/>
									<Node score="-0.9355629329674928">
										<SimplePredicate field="double(float(standard_scaler(median_income)))" operator="lessOrEqual" value="0.5581313967704773"/>
										<Node score="-0.14167990563436378">
											<SimplePredicate field="double(float(standard_scaler(latitude)))" operator="lessOrEqual" value="1.0694324374198914"/>
											<Node score="1.451955585336839">
												<SimplePredicate field="double(float(standard_scaler(longitude)))" operator="lessOrEqual" value="-1.3582797646522522"/>
											</Node>
										</Node>
										<Node score="-0.805355159802208">
											<SimplePredicate field="ocean_proximity" operator="equal" value="INLAND"/>
										</Node>
									</Node>
									<Node score="-0.2140435273065615">
										<SimplePredicate field="ocean_proximity" operator="equal" value="INLAND"/>
										<Node score="0.6731433133550412">
											<SimplePredicate field="double(float(standard_scaler(latitude)))" operator="lessOrEqual" value="-0.667365163564682"/>
										</Node>
									</Node>
									<Node score="0.16722039134746558">
										<SimplePredicate field="double(float(standard_scaler(total_rooms)))" operator="lessOrEqual" value="-0.656588613986969"/>
									</Node>
								</Node>
							</TreeModel>
						</Segment>
						<Segment id="19">
							<True/>
							<TreeModel functionName="regression" missingValueStrategy="nullPrediction" noTrueChildStrategy="returnLastPrediction">
								<MiningSchema>
									<MiningField name="ocean_proximity"/>
									<MiningField name="double(float(standard_scaler(median_income)))"/>
									<MiningField name="double(float(standard_scaler(longitude)))"/>
									<MiningField name="double(float(standard_scaler(latitude)))"/>
									<MiningField name="double(float(standard_scaler(population)))"/>
									<MiningField name="double(float(standard_scaler(total_bedrooms)))"/>
								</MiningSchema>
								<Node score="0.9187434193434035">
									<True/>
									<Node score="0.24568507508102533">
										<SimplePredicate field="double(float(standard_scaler(median_income)))" operator="lessOrEqual" value="-0.3586040735244751"/>
										<Node score="-0.7287856225846638">
											<SimplePredicate field="double(float(standard_scaler(total_bedrooms)))" operator="lessOrEqual" value="0.25497719645500183"/>
											<Node score="-0.31762710093755114">
												<SimplePredicate field="double(float(standard_scaler(population)))" operator="lessOrEqual" value="-0.38437420129776"/>
											</Node>
										</Node>
										<Node score="-0.9980620695240379">
											<SimplePredicate field="ocean_proximity" operator="equal" value="INLAND"/>
										</Node>
									</Node>
									<Node score="0.14835709633731364">
										<SimplePredicate field="double(float(standard_scaler(latitude)))" operator="lessOrEqual" value="1.0741138458251953"/>
										<Node score="0.9239201882659729">
											<SimplePredicate field="double(float(standard_scaler(longitude)))" operator="lessOrEqual" value="-1.1389198899269104"/>
										</Node>
									</Node>
									<Node score="-0.5537865212543212">
										<SimplePredicate field="double(float(standard_scaler(median_income)))" operator="lessOrEqual" value="1.190163791179657"/>
									</Node>
								</Node>
							</TreeModel>
						</Segment>
						<Segment id="20">
							<True/>
							<TreeModel functionName="regression" missingValueStrategy="nullPrediction" noTrueChildStrategy="returnLastPrediction">
								<MiningSchema>
									<MiningField name="ocean_proximity"/>
									<MiningField name="double(float(standard_scaler(median_income)))"/>
									<MiningField name="double(float(standard_scaler(longitude)))"/>
									<MiningField name="double(float(standard_scaler(latitude)))"/>
								</MiningSchema>
								<Node score="-1.6678862421182523">
									<True/>
									<Node score="-0.5060165852548819">
										<SimplePredicate field="double(float(standard_scaler(median_income)))" operator="lessOrEqual" value="0.7644528746604919"/>
										<Node score="-0.17765312433262623">
											<SimplePredicate field="double(float(standard_scaler(longitude)))" operator="lessOrEqual" value="1.2142134308815002"/>
											<Node score="0.770730527168434">
												<SimplePredicate field="ocean_proximity" operator="equal" value="NEAR OCEAN"/>
											</Node>
										</Node>
										<Node score="-1.1603699975426722">
											<SimplePredicate field="double(float(standard_scaler(latitude)))" operator="lessOrEqual" value="-1.2525395154953003"/>
										</Node>
									</Node>
									<Node score="1.00188804688331">
										<SimplePredicate field="double(float(standard_scaler(longitude)))" operator="lessOrEqual" value="1.8149603605270386"/>
										<Node score="0.48598866378211086">
											<SimplePredicate field="double(float(standard_scaler(median_income)))" operator="lessOrEqual" value="1.1614985466003418"/>
										</Node>
									</Node>
									<Node score="-3.1809579294124513">
										<SimplePredicate field="double(float(standard_scaler(latitude)))" operator="lessOrEqual" value="-1.2899907231330872"/>
									</Node>
								</Node>
							</TreeModel>
						</Segment>
						<Segment id="21">
							<True/>
							<TreeModel functionName="regression" missingValueStrategy="nullPrediction" noTrueChildStrategy="returnLastPrediction">
								<MiningSchema>
									<MiningField name="ocean_proximity"/>
									<MiningField name="double(float(standard_scaler(median_income)))"/>
									<MiningField name="double(float(standard_scaler(longitude)))"/>
									<MiningField name="double(float(standard_scaler(latitude)))"/>
									<MiningField name="double(float(standard_scaler(total_bedrooms)))"/>
								</MiningSchema>
								<Node score="0.5257423759903488">
									<True/>
									<Node score="-0.6945849159919922">
										<SimplePredicate field="double(float(standard_scaler(median_income)))" operator="lessOrEqual" value="-0.6241003572940826"/>
										<Node score="-0.8362652734607536">
											<SimplePredicate field="double(float(standard_scaler(latitude)))" operator="lessOrEqual" value="-0.7469488680362701"/>
											<Node score="3.134174379322418">
												<SimplePredicate field="double(float(standard_scaler(longitude)))" operator="lessOrEqual" value="0.5860464572906494"/>
											</Node>
										</Node>
										<Node score="0.44950005294993645">
											<SimplePredicate field="double(float(standard_scaler(latitude)))" operator="lessOrEqual" value="-0.5596930682659149"/>
										</Node>
									</Node>
									<Node score="-0.5570302190155829">
										<SimplePredicate field="ocean_proximity" operator="equal" value="INLAND"/>
										<Node score="0.0685780196006741">
											<SimplePredicate field="double(float(standard_scaler(latitude)))" operator="lessOrEqual" value="-0.667365163564682"/>
										</Node>
									</Node>
									<Node score="0.0061460585683227814">
										<SimplePredicate field="double(float(standard_scaler(total_bedrooms)))" operator="lessOrEqual" value="-0.27681294083595276"/>
									</Node>
								</Node>
							</TreeModel>
						</Segment>
						<Segment id="22">
							<True/>
							<TreeModel functionName="regression" missingValueStrategy="nullPrediction" noTrueChildStrategy="returnLastPrediction">
								<MiningSchema>
									<MiningField name="double(float(standard_scaler(median_income)))"/>
									<MiningField name="double(float(standard_scaler(longitude)))"/>
									<MiningField name="double(float(standard_scaler(households)))"/>
									<MiningField name="double(float(standard_scaler(housing_median_age)))"/>
									<MiningField name="double(float(standard_scaler(total_bedrooms)))"/>
									<MiningField name="double(float(standard_scaler(total_rooms)))"/>
								</MiningSchema>
								<Node score="-2.353415549628564">
									<True/>
									<Node score="0.8676722766584948">
										<SimplePredicate field="double(float(standard_scaler(median_income)))" operator="lessOrEqual" value="0.7644528746604919"/>
										<Node score="0.008505799335416252">
											<SimplePredicate field="double(float(standard_scaler(housing_median_age)))" operator="lessOrEqual" value="1.740109384059906"/>
											<Node score="-0.4108466978933989">
												<SimplePredicate field="double(float(standard_scaler(total_bedrooms)))" operator="lessOrEqual" value="-0.2983720004558563"/>
											</Node>
										</Node>
										<Node score="-0.3997528102815752">
											<SimplePredicate field="double(float(standard_scaler(median_income)))" operator="lessOrEqual" value="-0.8853021264076233"/>
										</Node>
									</Node>
									<Node score="-4.842411892347202">
										<SimplePredicate field="double(float(standard_scaler(total_rooms)))" operator="lessOrEqual" value="-1.0039719343185425"/>
										<Node score="-0.20472554060880185">
											<SimplePredicate field="double(float(standard_scaler(households)))" operator="lessOrEqual" value="-1.1101300120353699"/>
										</Node>
									</Node>
									<Node score="0.779194377556908">
										<SimplePredicate field="double(float(standard_scaler(longitude)))" operator="lessOrEqual" value="1.8149603605270386"/>
									</Node>
								</Node>
							</TreeModel>
						</Segment>
						<Segment id="23">
							<True/>
							<TreeModel functionName="regression" missingValueStrategy="nullPrediction" noTrueChildStrategy="returnLastPrediction">
								<MiningSchema>
									<MiningField name="ocean_proximity"/>
									<MiningField name="double(float(standard_scaler(median_income)))"/>
									<MiningField name="double(float(standard_scaler(longitude)))"/>
									<MiningField name="double(float(standard_scaler(latitude)))"/>
									<MiningField name="double(float(standard_scaler(households)))"/>
								</MiningSchema>
								<Node score="-1.327522893677232">
									<True/>
									<Node score="0.5546253651041716">
										<SimplePredicate field="ocean_proximity" operator="equal" value="INLAND"/>
										<Node score="-0.8553274673319129">
											<SimplePredicate field="double(float(standard_scaler(median_income)))" operator="lessOrEqual" value="1.2597719430923462"/>
											<Node score="-0.47533105985060287">
												<SimplePredicate field="double(float(standard_scaler(longitude)))" operator="lessOrEqual" value="0.935028076171875"/>
											</Node>
										</Node>
										<Node score="-3.277109973514412">
											<SimplePredicate field="double(float(standard_scaler(households)))" operator="lessOrEqual" value="-1.2543152570724487"/>
										</Node>
									</Node>
									<Node score="-0.1358632399452736">
										<SimplePredicate field="double(float(standard_scaler(latitude)))" operator="lessOrEqual" value="1.0741138458251953"/>
										<Node score="0.5426471328125535">
											<SimplePredicate field="double(float(standard_scaler(longitude)))" operator="lessOrEqual" value="0.6359009742736816"/>
										</Node>
									</Node>
									<Node score="-0.35647601851605637">
										<SimplePredicate field="double(float(standard_scaler(longitude)))" operator="lessOrEqual" value="-1.3956706523895264"/>
									</Node>
								</Node>
							</TreeModel>
						</Segment>
						<Segment id="24">
							<True/>
							<TreeModel functionName="regression" missingValueStrategy="nullPrediction" noTrueChildStrategy="returnLastPrediction">
								<MiningSchema>
									<MiningField name="double(float(standard_scaler(median_income)))"/>
									<MiningField name="double(float(standard_scaler(longitude)))"/>
									<MiningField name="double(float(standard_scaler(population)))"/>
									<MiningField name="double(float(standard_scaler(housing_median_age)))"/>
									<MiningField name="double(float(standard_scaler(total_rooms)))"/>
								</MiningSchema>
								<Node score="0.6866863139569088">
									<True/>
									<Node score="0.18962098160151644">
										<SimplePredicate field="double(float(standard_scaler(median_income)))" operator="lessOrEqual" value="0.36379770934581757"/>
										<Node score="-0.9601510333858172">
											<SimplePredicate field="double(float(standard_scaler(housing_median_age)))" operator="lessOrEqual" value="1.740109384059906"/>
											<Node score="-0.1428809016602944">
												<SimplePredicate field="double(float(standard_scaler(longitude)))" operator="lessOrEqual" value="1.2142134308815002"/>
											</Node>
										</Node>
										<Node score="1.2606181670351941">
											<SimplePredicate field="double(float(standard_scaler(longitude)))" operator="lessOrEqual" value="-1.4031488299369812"/>
										</Node>
									</Node>
									<Node score="-1.6532450512827284">
										<SimplePredicate field="double(float(standard_scaler(total_rooms)))" operator="lessOrEqual" value="-0.5952856838703156"/>
										<Node score="0.14963196749622704">
											<SimplePredicate field="double(float(standard_scaler(population)))" operator="lessOrEqual" value="-0.6734805405139923"/>
										</Node>
									</Node>
									<Node score="0.1495534973777787">
										<SimplePredicate field="double(float(standard_scaler(housing_median_age)))" operator="lessOrEqual" value="-0.9632835686206818"/>
									</Node>
								</Node>
							</TreeModel>
						</Segment>
						<Segment id="25">
							<True/>
							<TreeModel functionName="regression" missingValueStrategy="nullPrediction" noTrueChildStrategy="returnLastPrediction">
								<MiningSchema>
									<MiningField name="ocean_proximity"/>
									<MiningField name="double(float(standard_scaler(median_income)))"/>
									<MiningField name="double(float(standard_scaler(longitude)))"/>
									<MiningField name="double(float(standard_scaler(latitude)))"/>
								</MiningSchema>
								<Node score="-0.3564530648899033">
									<True/>
									<Node score="-0.39451318742249153">
										<SimplePredicate field="double(float(standard_scaler(median_income)))" operator="lessOrEqual" value="-0.5052501559257507"/>
										<Node score="-1.3124432136023367">
											<SimplePredicate field="double(float(standard_scaler(longitude)))" operator="lessOrEqual" value="-1.6723632216453552"/>
											<Node score="-1.0817388170523723">
												<SimplePredicate field="ocean_proximity" operator="equal" value="INLAND"/>
											</Node>
										</Node>
										<Node score="0.5520997847262733">
											<SimplePredicate field="double(float(standard_scaler(longitude)))" operator="lessOrEqual" value="-1.4031488299369812"/>
										</Node>
									</Node>
									<Node score="0.14354519525087797">
										<SimplePredicate field="double(float(standard_scaler(latitude)))" operator="lessOrEqual" value="1.0741138458251953"/>
										<Node score="1.1727750326989441">
											<SimplePredicate field="double(float(standard_scaler(longitude)))" operator="lessOrEqual" value="-1.3134106993675232"/>
										</Node>
									</Node>
									<Node score="-1.5406414054876933">
										<SimplePredicate field="double(float(standard_scaler(longitude)))" operator="lessOrEqual" value="-1.7496377229690552"/>
									</Node>
								</Node>
							</TreeModel>
						</Segment>
						<Segment id="26">
							<True/>
							<TreeModel functionName="regression" missingValueStrategy="nullPrediction" noTrueChildStrategy="returnLastPrediction">
								<MiningSchema>
									<MiningField name="ocean_proximity"/>
									<MiningField name="double(float(standard_scaler(median_income)))"/>
									<MiningField name="double(float(standard_scaler(longitude)))"/>
									<MiningField name="double(float(standard_scaler(population)))"/>
									<MiningField name="double(float(standard_scaler(households)))"/>
									<MiningField name="double(float(standard_scaler(total_bedrooms)))"/>
								</MiningSchema>
								<Node score="0.9471938088906399">
									<True/>
									<Node score="0.22492833000016882">
										<SimplePredicate field="double(float(standard_scaler(median_income)))" operator="lessOrEqual" value="0.7694324254989624"/>
										<Node score="-0.9054922400065">
											<SimplePredicate field="double(float(standard_scaler(total_bedrooms)))" operator="lessOrEqual" value="-0.3271174132823944"/>
											<Node score="-0.11727164156702193">
												<SimplePredicate field="double(float(standard_scaler(population)))" operator="lessOrEqual" value="-0.3905725032091141"/>
											</Node>
										</Node>
										<Node score="-0.5464813667759518">
											<SimplePredicate field="ocean_proximity" operator="equal" value="INLAND"/>
										</Node>
									</Node>
									<Node score="-0.5016247259268214">
										<SimplePredicate field="double(float(standard_scaler(median_income)))" operator="lessOrEqual" value="1.1614985466003418"/>
										<Node score="0.4772047281200858">
											<SimplePredicate field="double(float(standard_scaler(longitude)))" operator="lessOrEqual" value="1.1244753003120422"/>
										</Node>
									</Node>
									<Node score="-0.5336120793985475">
										<SimplePredicate field="double(float(standard_scaler(households)))" operator="lessOrEqual" value="-1.2146312594413757"/>
									</Node>
								</Node>
							</TreeModel>
						</Segment>
						<Segment id="27">
							<True/>
							<TreeModel functionName="regression" missingValueStrategy="nullPrediction" noTrueChildStrategy="returnLastPrediction">
								<MiningSchema>
									<MiningField name="double(float(standard_scaler(median_income)))"/>
									<MiningField name="double(float(standard_scaler(longitude)))"/>
									<MiningField name="double(float(standard_scaler(latitude)))"/>
								</MiningSchema>
								<Node score="-0.38168470998165044">
									<True/>
									<Node score="-0.17380227291699854">
										<SimplePredicate field="double(float(standard_scaler(median_income)))" operator="lessOrEqual" value="-0.7168672978878021"/>
										<Node score="-1.0098839684383487">
											<SimplePredicate field="double(float(standard_scaler(longitude)))" operator="lessOrEqual" value="-1.2236725687980652"/>
											<Node score="-0.3983286573879639">
												<SimplePredicate field="double(float(standard_scaler(longitude)))" operator="lessOrEqual" value="-1.3931779265403748"/>
											</Node>
										</Node>
										<Node score="-0.7085106933138605">
											<SimplePredicate field="double(float(standard_scaler(latitude)))" operator="lessOrEqual" value="-0.7469488680362701"/>
										</Node>
									</Node>
									<Node score="0.05574194586544967">
										<SimplePredicate field="double(float(standard_scaler(latitude)))" operator="lessOrEqual" value="1.0787952542304993"/>
										<Node score="0.7090345777162755">
											<SimplePredicate field="double(float(standard_scaler(longitude)))" operator="lessOrEqual" value="-1.1488907933235168"/>
										</Node>
									</Node>
									<Node score="-1.3840866666684508">
										<SimplePredicate field="double(float(standard_scaler(longitude)))" operator="lessOrEqual" value="-1.7496377229690552"/>
									</Node>
								</Node>
							</TreeModel>
						</Segment>
						<Segment id="28">
							<True/>
							<TreeModel functionName="regression" missingValueStrategy="nullPrediction" noTrueChildStrategy="returnLastPrediction">
								<MiningSchema>
									<MiningField name="ocean_proximity"/>
									<MiningField name="double(float(standard_scaler(median_income)))"/>
									<MiningField name="double(float(standard_scaler(longitude)))"/>
									<MiningField name="double(float(standard_scaler(latitude)))"/>
								</MiningSchema>
								<Node score="0.7950947272387101">
									<True/>
									<Node score="-0.9693469806649443">
										<SimplePredicate field="ocean_proximity" operator="equal" value="INLAND"/>
										<Node score="-0.5070173510609544">
											<SimplePredicate field="double(float(standard_scaler(latitude)))" operator="lessOrEqual" value="-0.667365163564682"/>
											<Node score="2.922114257628417">
												<SimplePredicate field="double(float(standard_scaler(longitude)))" operator="lessOrEqual" value="0.7854645252227783"/>
											</Node>
										</Node>
										<Node score="-0.25042982189757657">
											<SimplePredicate field="double(float(standard_scaler(longitude)))" operator="lessOrEqual" value="-0.7251273393630981"/>
										</Node>
									</Node>
									<Node score="-0.5829878889439601">
										<SimplePredicate field="double(float(standard_scaler(longitude)))" operator="lessOrEqual" value="1.2142134308815002"/>
										<Node score="0.2548753556255743">
											<SimplePredicate field="double(float(standard_scaler(latitude)))" operator="lessOrEqual" value="1.0741138458251953"/>
										</Node>
									</Node>
									<Node score="-0.8864584665518248">
										<SimplePredicate field="double(float(standard_scaler(median_income)))" operator="lessOrEqual" value="0.9187131524085999"/>
									</Node>
								</Node>
							</TreeModel>
						</Segment>
						<Segment id="29">
							<True/>
							<TreeModel functionName="regression" missingValueStrategy="nullPrediction" noTrueChildStrategy="returnLastPrediction">
								<MiningSchema>
									<MiningField name="double(float(standard_scaler(median_income)))"/>
									<MiningField name="double(float(standard_scaler(longitude)))"/>
									<MiningField name="double(float(standard_scaler(population)))"/>
									<MiningField name="double(float(standard_scaler(total_bedrooms)))"/>
								</MiningSchema>
								<Node score="-2.106756332088086">
									<True/>
									<Node score="-0.11264203522547643">
										<SimplePredicate field="double(float(standard_scaler(median_income)))" operator="lessOrEqual" value="0.7694324254989624"/>
										<Node score="-0.8080569770975137">
											<SimplePredicate field="double(float(standard_scaler(total_bedrooms)))" operator="lessOrEqual" value="-0.2983720004558563"/>
											<Node score="-0.09017446830310415">
												<SimplePredicate field="double(float(standard_scaler(population)))" operator="lessOrEqual" value="-0.3905725032091141"/>
											</Node>
										</Node>
										<Node score="0.5045434286922885">
											<SimplePredicate field="double(float(standard_scaler(population)))" operator="lessOrEqual" value="-0.07800115644931793"/>
										</Node>
									</Node>
									<Node score="-3.5299879144814716">
										<SimplePredicate field="double(float(standard_scaler(total_bedrooms)))" operator="lessOrEqual" value="-1.1954683661460876"/>
										<Node score="-0.32087200159987733">
											<SimplePredicate field="double(float(standard_scaler(longitude)))" operator="lessOrEqual" value="0.7730008959770203"/>
										</Node>
									</Node>
									<Node score="0.6606688624363545">
										<SimplePredicate field="double(float(standard_scaler(longitude)))" operator="lessOrEqual" value="1.8149603605270386"/>
									</Node>
								</Node>
							</TreeModel>
						</Segment>
						<Segment id="30">
							<True/>
							<TreeModel functionName="regression" missingValueStrategy="nullPrediction" noTrueChildStrategy="returnLastPrediction">
								<MiningSchema>
									<MiningField name="double(float(standard_scaler(median_income)))"/>
									<MiningField name="double(float(standard_scaler(longitude)))"/>
									<MiningField name="double(float(standard_scaler(population)))"/>
									<MiningField name="double(float(standard_scaler(total_bedrooms)))"/>
									<MiningField name="double(float(standard_scaler(total_rooms)))"/>
								</MiningSchema>
								<Node score="0.6362652300796037">
									<True/>
									<Node score="-0.6020700766495157">
										<SimplePredicate field="double(float(standard_scaler(median_income)))" operator="lessOrEqual" value="-0.03414373658597469"/>
										<Node score="-0.6861908555241117">
											<SimplePredicate field="double(float(standard_scaler(total_bedrooms)))" operator="lessOrEqual" value="0.2501862943172455"/>
											<Node score="-0.1509669994788253">
												<SimplePredicate field="double(float(standard_scaler(population)))" operator="lessOrEqual" value="-0.13290036469697952"/>
											</Node>
										</Node>
										<Node score="0.3705569497630838">
											<SimplePredicate field="double(float(standard_scaler(longitude)))" operator="lessOrEqual" value="0.7954354286193848"/>
										</Node>
									</Node>
									<Node score="0.419831268919043">
										<SimplePredicate field="double(float(standard_scaler(longitude)))" operator="lessOrEqual" value="1.029751718044281"/>
										<Node score="-0.07097458743309142">
											<SimplePredicate field="double(float(standard_scaler(total_rooms)))" operator="lessOrEqual" value="-0.46106937527656555"/>
										</Node>
									</Node>
									<Node score="-0.43867320033382634">
										<SimplePredicate field="double(float(standard_scaler(median_income)))" operator="lessOrEqual" value="1.163421869277954"/>
									</Node>
								</Node>
							</TreeModel>
						</Segment>
						<Segment id="31">
							<True/>
							<TreeModel functionName="regression" missingValueStrategy="nullPrediction" noTrueChildStrategy="returnLastPrediction">
								<MiningSchema>
									<MiningField name="ocean_proximity"/>
									<MiningField name="double(float(standard_scaler(median_income)))"/>
									<MiningField name="double(float(standard_scaler(longitude)))"/>
									<MiningField name="double(float(standard_scaler(latitude)))"/>
								</MiningSchema>
								<Node score="0.8864349889828435">
									<True/>
									<Node score="-0.9428589997658683">
										<SimplePredicate field="ocean_proximity" operator="equal" value="INLAND"/>
										<Node score="-0.4605873930121673">
											<SimplePredicate field="double(float(standard_scaler(latitude)))" operator="lessOrEqual" value="-0.667365163564682"/>
											<Node score="2.4710269895229584">
												<SimplePredicate field="double(float(standard_scaler(longitude)))" operator="lessOrEqual" value="0.7854645252227783"/>
											</Node>
										</Node>
										<Node score="-0.2459395321876945">
											<SimplePredicate field="double(float(standard_scaler(longitude)))" operator="lessOrEqual" value="-0.7251273393630981"/>
										</Node>
									</Node>
									<Node score="-0.534975784216673">
										<SimplePredicate field="double(float(standard_scaler(longitude)))" operator="lessOrEqual" value="0.6508573293685913"/>
										<Node score="0.4139067622567654">
											<SimplePredicate field="double(float(standard_scaler(latitude)))" operator="lessOrEqual" value="1.0694324374198914"/>
										</Node>
									</Node>
									<Node score="-0.2339806616176266">
										<SimplePredicate field="double(float(standard_scaler(median_income)))" operator="lessOrEqual" value="0.8953699171543121"/>
									</Node>
								</Node>
							</TreeModel>
						</Segment>
						<Segment id="32">
							<True/>
							<TreeModel functionName="regression" missingValueStrategy="nullPrediction" noTrueChildStrategy="returnLastPrediction">
								<MiningSchema>
									<MiningField name="double(float(standard_scaler(median_income)))"/>
									<MiningField name="double(float(standard_scaler(longitude)))"/>
									<MiningField name="double(float(standard_scaler(latitude)))"/>
								</MiningSchema>
								<Node score="-0.4218070488501906">
									<True/>
									<Node score="-0.10477999989819037">
										<SimplePredicate field="double(float(standard_scaler(median_income)))" operator="lessOrEqual" value="-0.7168672978878021"/>
										<Node score="-0.9710822284113696">
											<SimplePredicate field="double(float(standard_scaler(longitude)))" operator="lessOrEqual" value="-1.2236725687980652"/>
											<Node score="-0.3294004681817221">
												<SimplePredicate field="double(float(standard_scaler(longitude)))" operator="lessOrEqual" value="-1.3931779265403748"/>
											</Node>
										</Node>
										<Node score="-0.6467688931224505">
											<SimplePredicate field="double(float(standard_scaler(latitude)))" operator="lessOrEqual" value="-0.7469488680362701"/>
										</Node>
									</Node>
									<Node score="-0.5419589587633853">
										<SimplePredicate field="double(float(standard_scaler(longitude)))" operator="lessOrEqual" value="-1.4031488299369812"/>
										<Node score="1.1330840074188004">
											<SimplePredicate field="double(float(standard_scaler(latitude)))" operator="lessOrEqual" value="1.2988207936286926"/>
										</Node>
									</Node>
									<Node score="0.13923856248636834">
										<SimplePredicate field="double(float(standard_scaler(latitude)))" operator="lessOrEqual" value="0.9196278154850006"/>
									</Node>
								</Node>
							</TreeModel>
						</Segment>
						<Segment id="33">
							<True/>
							<TreeModel functionName="regression" missingValueStrategy="nullPrediction" noTrueChildStrategy="returnLastPrediction">
								<MiningSchema>
									<MiningField name="ocean_proximity"/>
									<MiningField name="double(float(standard_scaler(median_income)))"/>
									<MiningField name="double(float(standard_scaler(longitude)))"/>
									<MiningField name="double(float(standard_scaler(latitude)))"/>
								</MiningSchema>
								<Node score="-2.304803750383302">
									<True/>
									<Node score="-0.1839754061614297">
										<SimplePredicate field="double(float(standard_scaler(median_income)))" operator="lessOrEqual" value="0.9445856511592865"/>
										<Node score="-1.0864744751985917">
											<SimplePredicate field="ocean_proximity" operator="equal" value="NEAR OCEAN"/>
											<Node score="0.6691494476092708">
												<SimplePredicate field="double(float(standard_scaler(longitude)))" operator="lessOrEqual" value="1.2142134308815002"/>
											</Node>
										</Node>
										<Node score="0.4953430726445047">
											<SimplePredicate field="double(float(standard_scaler(longitude)))" operator="lessOrEqual" value="-1.4031488299369812"/>
										</Node>
									</Node>
									<Node score="1.0870906414326706">
										<SimplePredicate field="double(float(standard_scaler(latitude)))" operator="lessOrEqual" value="1.5773637890815735"/>
										<Node score="0.6983790169180303">
											<SimplePredicate field="double(float(standard_scaler(latitude)))" operator="lessOrEqual" value="1.2941393852233887"/>
										</Node>
									</Node>
									<Node score="-1.7333690175644114">
										<SimplePredicate field="double(float(standard_scaler(median_income)))" operator="lessOrEqual" value="0.9733036160469055"/>
									</Node>
								</Node>
							</TreeModel>
						</Segment>
						<Segment id="34">
							<True/>
							<TreeModel functionName="regression" missingValueStrategy="nullPrediction" noTrueChildStrategy="returnLastPrediction">
								<MiningSchema>
									<MiningField name="ocean_proximity"/>
									<MiningField name="double(float(standard_scaler(median_income)))"/>
									<MiningField name="double(float(standard_scaler(longitude)))"/>
									<MiningField name="double(float(standard_scaler(latitude)))"/>
									<MiningField name="double(float(standard_scaler(population)))"/>
									<MiningField name="double(float(standard_scaler(housing_median_age)))"/>
								</MiningSchema>
								<Node score="2.0191697998689686">
									<True/>
									<Node score="0.15366241990234777">
										<SimplePredicate field="ocean_proximity" operator="equal" value="INLAND"/>
										<Node score="-0.7515684902274422">
											<SimplePredicate field="double(float(standard_scaler(median_income)))" operator="lessOrEqual" value="0.033699167892336845"/>
											<Node score="0.2081157186924387">
												<SimplePredicate field="double(float(standard_scaler(population)))" operator="lessOrEqual" value="-0.9918074607849121"/>
											</Node>
										</Node>
										<Node score="-0.4786445701569169">
											<SimplePredicate field="double(float(standard_scaler(housing_median_age)))" operator="lessOrEqual" value="-1.4403528571128845"/>
										</Node>
									</Node>
									<Node score="-0.5213400586990431">
										<SimplePredicate field="double(float(standard_scaler(longitude)))" operator="lessOrEqual" value="1.209227979183197"/>
										<Node score="0.21150112788391195">
											<SimplePredicate field="double(float(standard_scaler(latitude)))" operator="lessOrEqual" value="1.0741138458251953"/>
										</Node>
									</Node>
									<Node score="-0.7016830369453713">
										<SimplePredicate field="double(float(standard_scaler(latitude)))" operator="lessOrEqual" value="-1.163593053817749"/>
									</Node>
								</Node>
							</TreeModel>
						</Segment>
						<Segment id="35">
							<True/>
							<TreeModel functionName="regression" missingValueStrategy="nullPrediction" noTrueChildStrategy="returnLastPrediction">
								<MiningSchema>
									<MiningField name="ocean_proximity"/>
									<MiningField name="double(float(standard_scaler(median_income)))"/>
									<MiningField name="double(float(standard_scaler(longitude)))"/>
									<MiningField name="double(float(standard_scaler(latitude)))"/>
									<MiningField name="double(float(standard_scaler(population)))"/>
									<MiningField name="double(float(standard_scaler(households)))"/>
									<MiningField name="double(float(standard_scaler(total_rooms)))"/>
								</MiningSchema>
								<Node score="-0.5577998488610396">
									<True/>
									<Node score="-0.5883548167331654">
										<SimplePredicate field="double(float(standard_scaler(total_rooms)))" operator="lessOrEqual" value="-0.040772709995508194"/>
										<Node score="0.4599165196310216">
											<SimplePredicate field="double(float(standard_scaler(population)))" operator="lessOrEqual" value="-0.27634671330451965"/>
											<Node score="-0.1416235085004484">
												<SimplePredicate field="double(float(standard_scaler(households)))" operator="lessOrEqual" value="-0.4474068731069565"/>
											</Node>
										</Node>
										<Node score="0.6079585252789577">
											<SimplePredicate field="double(float(standard_scaler(longitude)))" operator="lessOrEqual" value="-1.398163378238678"/>
										</Node>
									</Node>
									<Node score="0.39880491945421354">
										<SimplePredicate field="ocean_proximity" operator="equal" value="INLAND"/>
										<Node score="-0.411524238709947">
											<SimplePredicate field="double(float(standard_scaler(median_income)))" operator="lessOrEqual" value="0.6749265789985657"/>
										</Node>
									</Node>
									<Node score="0.4177530918741999">
										<SimplePredicate field="double(float(standard_scaler(latitude)))" operator="lessOrEqual" value="1.0975208282470703"/>
									</Node>
								</Node>
							</TreeModel>
						</Segment>
						<Segment id="36">
							<True/>
							<TreeModel functionName="regression" missingValueStrategy="nullPrediction" noTrueChildStrategy="returnLastPrediction">
								<MiningSchema>
									<MiningField name="ocean_proximity"/>
									<MiningField name="double(float(standard_scaler(median_income)))"/>
									<MiningField name="double(float(standard_scaler(longitude)))"/>
									<MiningField name="double(float(standard_scaler(latitude)))"/>
									<MiningField name="double(float(standard_scaler(population)))"/>
									<MiningField name="double(float(standard_scaler(housing_median_age)))"/>
									<MiningField name="double(float(standard_scaler(total_rooms)))"/>
								</MiningSchema>
								<Node score="0.530156753442441">
									<True/>
									<Node score="-0.39982045446561826">
										<SimplePredicate field="double(float(standard_scaler(median_income)))" operator="lessOrEqual" value="0.3830835372209549"/>
										<Node score="-0.7228885907812536">
											<SimplePredicate field="ocean_proximity" operator="equal" value="NEAR OCEAN"/>
											<Node score="0.6572273624497397">
												<SimplePredicate field="double(float(standard_scaler(longitude)))" operator="lessOrEqual" value="1.1793152689933777"/>
											</Node>
										</Node>
										<Node score="0.04819420927112335">
											<SimplePredicate field="double(float(standard_scaler(latitude)))" operator="lessOrEqual" value="-0.672046571969986"/>
										</Node>
									</Node>
									<Node score="-1.6084300238006246">
										<SimplePredicate field="double(float(standard_scaler(total_rooms)))" operator="lessOrEqual" value="-0.6561241745948792"/>
										<Node score="0.06638882004552407">
											<SimplePredicate field="double(float(standard_scaler(population)))" operator="lessOrEqual" value="-0.7748669981956482"/>
										</Node>
									</Node>
									<Node score="0.06252110241372318">
										<SimplePredicate field="double(float(standard_scaler(housing_median_age)))" operator="lessOrEqual" value="-0.9632835686206818"/>
									</Node>
								</Node>
							</TreeModel>
						</Segment>
						<Segment id="37">
							<True/>
							<TreeModel functionName="regression" missingValueStrategy="nullPrediction" noTrueChildStrategy="returnLastPrediction">
								<MiningSchema>
									<MiningField name="double(float(standard_scaler(median_income)))"/>
									<MiningField name="double(float(standard_scaler(latitude)))"/>
									<MiningField name="double(float(standard_scaler(population)))"/>
									<MiningField name="double(float(standard_scaler(households)))"/>
									<MiningField name="double(float(standard_scaler(total_rooms)))"/>
								</MiningSchema>
								<Node score="0.21501164500387066">
									<True/>
									<Node score="-0.8527346509178563">
										<SimplePredicate field="double(float(standard_scaler(total_rooms)))" operator="lessOrEqual" value="-0.040772709995508194"/>
										<Node score="0.6331884540662808">
											<SimplePredicate field="double(float(standard_scaler(population)))" operator="lessOrEqual" value="-0.1957688257098198"/>
											<Node score="-0.08082121557849434">
												<SimplePredicate field="double(float(standard_scaler(households)))" operator="lessOrEqual" value="-0.23840435594320297"/>
											</Node>
										</Node>
										<Node score="-0.38625978993061194">
											<SimplePredicate field="double(float(standard_scaler(median_income)))" operator="lessOrEqual" value="-0.20668866485357285"/>
										</Node>
									</Node>
									<Node score="0.2216765044231489">
										<SimplePredicate field="double(float(standard_scaler(population)))" operator="lessOrEqual" value="0.2797292172908783"/>
										<Node score="0.7667268417049642">
											<SimplePredicate field="double(float(standard_scaler(latitude)))" operator="lessOrEqual" value="-0.667365163564682"/>
										</Node>
									</Node>
									<Node score="-0.38115838557601267">
										<SimplePredicate field="double(float(standard_scaler(households)))" operator="lessOrEqual" value="0.7616329789161682"/>
									</Node>
								</Node>
							</TreeModel>
						</Segment>
						<Segment id="38">
							<True/>
							<TreeModel functionName="regression" missingValueStrategy="nullPrediction" noTrueChildStrategy="returnLastPrediction">
								<MiningSchema>
									<MiningField name="double(float(standard_scaler(median_income)))"/>
									<MiningField name="double(float(standard_scaler(longitude)))"/>
									<MiningField name="double(float(standard_scaler(latitude)))"/>
									<MiningField name="double(float(standard_scaler(population)))"/>
									<MiningField name="double(float(standard_scaler(households)))"/>
									<MiningField name="double(float(standard_scaler(housing_median_age)))"/>
									<MiningField name="double(float(standard_scaler(total_rooms)))"/>
								</MiningSchema>
								<Node score="0.6503867990042927">
									<True/>
									<Node score="-0.32391962682818903">
										<SimplePredicate field="double(float(standard_scaler(median_income)))" operator="lessOrEqual" value="-0.7188696563243866"/>
										<Node score="5.706944499758707">
											<SimplePredicate field="double(float(standard_scaler(population)))" operator="lessOrEqual" value="-1.1122315526008606"/>
											<Node score="0.7733212166720091">
												<SimplePredicate field="double(float(standard_scaler(households)))" operator="lessOrEqual" value="-1.0691232085227966"/>
											</Node>
										</Node>
										<Node score="-0.6884237694924511">
											<SimplePredicate field="double(float(standard_scaler(longitude)))" operator="lessOrEqual" value="-1.2236725687980652"/>
										</Node>
									</Node>
									<Node score="0.10730599848417362">
										<SimplePredicate field="double(float(standard_scaler(housing_median_age)))" operator="lessOrEqual" value="1.183528482913971"/>
										<Node score="-0.27104479302172696">
											<SimplePredicate field="double(float(standard_scaler(total_rooms)))" operator="lessOrEqual" value="-0.47685952484607697"/>
										</Node>
									</Node>
									<Node score="-0.09641217760510741">
										<SimplePredicate field="double(float(standard_scaler(latitude)))" operator="lessOrEqual" value="-0.7469488680362701"/>
									</Node>
								</Node>
							</TreeModel>
						</Segment>
						<Segment id="39">
							<True/>
							<TreeModel functionName="regression" missingValueStrategy="nullPrediction" noTrueChildStrategy="returnLastPrediction">
								<MiningSchema>
									<MiningField name="double(float(standard_scaler(median_income)))"/>
									<MiningField name="double(float(standard_scaler(latitude)))"/>
									<MiningField name="double(float(standard_scaler(population)))"/>
									<MiningField name="double(float(standard_scaler(total_bedrooms)))"/>
								</MiningSchema>
								<Node score="-1.8888724104998889">
									<True/>
									<Node score="-0.2122160615285665">
										<SimplePredicate field="double(float(standard_scaler(median_income)))" operator="lessOrEqual" value="0.9812866747379303"/>
										<Node score="-0.5873774439937406">
											<SimplePredicate field="double(float(standard_scaler(total_bedrooms)))" operator="lessOrEqual" value="0.28132715821266174"/>
											<Node score="-0.02018823803391962">
												<SimplePredicate field="double(float(standard_scaler(population)))" operator="lessOrEqual" value="-0.039040420204401016"/>
											</Node>
										</Node>
										<Node score="0.4995744011446272">
											<SimplePredicate field="double(float(standard_scaler(population)))" operator="lessOrEqual" value="0.8428889214992523"/>
										</Node>
									</Node>
									<Node score="0.7194671431330224">
										<SimplePredicate field="double(float(standard_scaler(latitude)))" operator="lessOrEqual" value="1.5773637890815735"/>
										<Node score="-0.7907515524640127">
											<SimplePredicate field="double(float(standard_scaler(total_bedrooms)))" operator="lessOrEqual" value="-1.1954683661460876"/>
										</Node>
									</Node>
									<Node score="-2.081661464707771">
										<SimplePredicate field="double(float(standard_scaler(median_income)))" operator="lessOrEqual" value="1.1170515418052673"/>
									</Node>
								</Node>
							</TreeModel>
						</Segment>
						<Segment id="40">
							<True/>
							<TreeModel functionName="regression" missingValueStrategy="nullPrediction" noTrueChildStrategy="returnLastPrediction">
								<MiningSchema>
									<MiningField name="ocean_proximity"/>
									<MiningField name="double(float(standard_scaler(longitude)))"/>
									<MiningField name="double(float(standard_scaler(latitude)))"/>
									<MiningField name="double(float(standard_scaler(housing_median_age)))"/>
									<MiningField name="double(float(standard_scaler(total_rooms)))"/>
								</MiningSchema>
								<Node score="1.6657632015394788">
									<True/>
									<Node score="-0.21901463397632148">
										<SimplePredicate field="double(float(standard_scaler(longitude)))" operator="lessOrEqual" value="1.1743298172950745"/>
										<Node score="-1.302740706430328">
											<SimplePredicate field="ocean_proximity" operator="equal" value="NEAR OCEAN"/>
											<Node score="0.7431758235578471">
												<SimplePredicate field="double(float(standard_scaler(latitude)))" operator="lessOrEqual" value="1.3011614680290222"/>
											</Node>
										</Node>
										<Node score="0.16208024541445482">
											<SimplePredicate field="double(float(standard_scaler(latitude)))" operator="lessOrEqual" value="-0.672046571969986"/>
										</Node>
									</Node>
									<Node score="-0.24296132196298373">
										<SimplePredicate field="double(float(standard_scaler(housing_median_age)))" operator="lessOrEqual" value="0.7064591646194458"/>
										<Node score="-0.7264797735683424">
											<SimplePredicate field="double(float(standard_scaler(latitude)))" operator="lessOrEqual" value="-1.2478581666946411"/>
										</Node>
									</Node>
									<Node score="-0.05593208590358158">
										<SimplePredicate field="double(float(standard_scaler(total_rooms)))" operator="lessOrEqual" value="-0.02869788696989417"/>
									</Node>
								</Node>
							</TreeModel>
						</Segment>
						<Segment id="41">
							<True/>
							<TreeModel functionName="regression" missingValueStrategy="nullPrediction" noTrueChildStrategy="returnLastPrediction">
								<MiningSchema>
									<MiningField name="ocean_proximity"/>
									<MiningField name="double(float(standard_scaler(longitude)))"/>
									<MiningField name="double(float(standard_scaler(latitude)))"/>
								</MiningSchema>
								<Node score="0.9670021976224452">
									<True/>
									<Node score="-1.0067782002904866">
										<SimplePredicate field="ocean_proximity" operator="equal" value="INLAND"/>
										<Node score="-0.4015040803967623">
											<SimplePredicate field="double(float(standard_scaler(latitude)))" operator="lessOrEqual" value="-0.672046571969986"/>
											<Node score="2.1779565140691393">
												<SimplePredicate field="double(float(standard_scaler(longitude)))" operator="lessOrEqual" value="0.7854645252227783"/>
											</Node>
										</Node>
										<Node score="-0.23274587876325897">
											<SimplePredicate field="double(float(standard_scaler(longitude)))" operator="lessOrEqual" value="-0.17672765254974365"/>
										</Node>
									</Node>
									<Node score="0.049306433049170505">
										<SimplePredicate field="double(float(standard_scaler(longitude)))" operator="lessOrEqual" value="0.6508573293685913"/>
										<Node score="0.6663101117454628">
											<SimplePredicate field="double(float(standard_scaler(latitude)))" operator="lessOrEqual" value="-0.672046571969986"/>
										</Node>
									</Node>
									<Node score="-0.19979268861399302">
										<SimplePredicate field="double(float(standard_scaler(latitude)))" operator="lessOrEqual" value="-0.709497720003128"/>
									</Node>
								</Node>
							</TreeModel>
						</Segment>
						<Segment id="42">
							<True/>
							<TreeModel functionName="regression" missingValueStrategy="nullPrediction" noTrueChildStrategy="returnLastPrediction">
								<MiningSchema>
									<MiningField name="ocean_proximity"/>
									<MiningField name="double(float(standard_scaler(longitude)))"/>
									<MiningField name="double(float(standard_scaler(latitude)))"/>
								</MiningSchema>
								<Node score="-0.05754944978545983">
									<True/>
									<Node score="-1.2291128783264074">
										<SimplePredicate field="double(float(standard_scaler(longitude)))" operator="lessOrEqual" value="-1.4031488299369812"/>
										<Node score="1.2465746326259424">
											<SimplePredicate field="double(float(standard_scaler(latitude)))" operator="lessOrEqual" value="1.4345812797546387"/>
											<Node score="0.07029686937505052">
												<SimplePredicate field="ocean_proximity" operator="equal" value="&lt;1H OCEAN"/>
											</Node>
										</Node>
										<Node score="-0.9586742424753041">
											<SimplePredicate field="ocean_proximity" operator="equal" value="INLAND"/>
										</Node>
									</Node>
									<Node score="-0.6484042629746707">
										<SimplePredicate field="ocean_proximity" operator="equal" value="NEAR BAY"/>
										<Node score="0.6492454493263262">
											<SimplePredicate field="double(float(standard_scaler(latitude)))" operator="lessOrEqual" value="0.9149464070796967"/>
										</Node>
									</Node>
									<Node score="0.7856825221343234">
										<SimplePredicate field="double(float(standard_scaler(longitude)))" operator="lessOrEqual" value="-1.1389198899269104"/>
									</Node>
								</Node>
							</TreeModel>
						</Segment>
						<Segment id="43">
							<True/>
							<TreeModel functionName="regression" missingValueStrategy="nullPrediction" noTrueChildStrategy="returnLastPrediction">
								<MiningSchema>
									<MiningField name="ocean_proximity"/>
									<MiningField name="double(float(standard_scaler(median_income)))"/>
									<MiningField name="double(float(standard_scaler(latitude)))"/>
									<MiningField name="double(float(standard_scaler(population)))"/>
									<MiningField name="double(float(standard_scaler(housing_median_age)))"/>
									<MiningField name="double(float(standard_scaler(total_rooms)))"/>
								</MiningSchema>
								<Node score="0.5794659972309807">
									<True/>
									<Node score="-0.3994476691038217">
										<SimplePredicate field="double(float(standard_scaler(median_income)))" operator="lessOrEqual" value="0.5185585618019104"/>
										<Node score="-0.17008318433306355">
											<SimplePredicate field="double(float(standard_scaler(housing_median_age)))" operator="lessOrEqual" value="1.740109384059906"/>
											<Node score="0.2218982811663064">
												<SimplePredicate field="ocean_proximity" operator="equal" value="NEAR OCEAN"/>
											</Node>
										</Node>
										<Node score="0.6117514984342182">
											<SimplePredicate field="double(float(standard_scaler(latitude)))" operator="lessOrEqual" value="1.0179370641708374"/>
										</Node>
									</Node>
									<Node score="-1.6800298405184335">
										<SimplePredicate field="double(float(standard_scaler(total_rooms)))" operator="lessOrEqual" value="-0.656588613986969"/>
										<Node score="0.12724511828490095">
											<SimplePredicate field="double(float(standard_scaler(population)))" operator="lessOrEqual" value="-0.7748669981956482"/>
										</Node>
									</Node>
									<Node score="0.07133422458086956">
										<SimplePredicate field="double(float(standard_scaler(housing_median_age)))" operator="lessOrEqual" value="-0.9632835686206818"/>
									</Node>
								</Node>
							</TreeModel>
						</Segment>
						<Segment id="44">
							<True/>
							<TreeModel functionName="regression" missingValueStrategy="nullPrediction" noTrueChildStrategy="returnLastPrediction">
								<MiningSchema>
									<MiningField name="double(float(standard_scaler(population)))"/>
									<MiningField name="double(float(standard_scaler(households)))"/>
									<MiningField name="double(float(standard_scaler(housing_median_age)))"/>
									<MiningField name="double(float(standard_scaler(total_bedrooms)))"/>
									<MiningField name="double(float(standard_scaler(total_rooms)))"/>
								</MiningSchema>
								<Node score="0.12627660668051296">
									<True/>
									<Node score="-0.10108230714998531">
										<SimplePredicate field="double(float(standard_scaler(total_bedrooms)))" operator="lessOrEqual" value="-0.06601324677467346"/>
										<Node score="0.6566957972334784">
											<SimplePredicate field="double(float(standard_scaler(population)))" operator="lessOrEqual" value="-0.4410443603992462"/>
											<Node score="-0.015785662816140338">
												<SimplePredicate field="double(float(standard_scaler(households)))" operator="lessOrEqual" value="-0.45269808173179626"/>
											</Node>
										</Node>
										<Node score="-0.6763863672001107">
											<SimplePredicate field="double(float(standard_scaler(total_rooms)))" operator="lessOrEqual" value="-0.3245310038328171"/>
										</Node>
									</Node>
									<Node score="0.7144583361393079">
										<SimplePredicate field="double(float(standard_scaler(population)))" operator="lessOrEqual" value="0.2699890434741974"/>
										<Node score="-0.07012742317873692">
											<SimplePredicate field="double(float(standard_scaler(housing_median_age)))" operator="lessOrEqual" value="-0.6452372968196869"/>
										</Node>
									</Node>
									<Node score="-0.5611803963070061">
										<SimplePredicate field="double(float(standard_scaler(total_bedrooms)))" operator="lessOrEqual" value="0.4298451244831085"/>
									</Node>
								</Node>
							</TreeModel>
						</Segment>
						<Segment id="45">
							<True/>
							<TreeModel functionName="regression" missingValueStrategy="nullPrediction" noTrueChildStrategy="returnLastPrediction">
								<MiningSchema>
									<MiningField name="double(float(standard_scaler(median_income)))"/>
									<MiningField name="double(float(standard_scaler(longitude)))"/>
									<MiningField name="double(float(standard_scaler(latitude)))"/>
								</MiningSchema>
								<Node score="-0.5146188329329013">
									<True/>
									<Node score="-0.336765743493472">
										<SimplePredicate field="double(float(standard_scaler(latitude)))" operator="lessOrEqual" value="1.0741138458251953"/>
										<Node score="1.017496240038226">
											<SimplePredicate field="double(float(standard_scaler(longitude)))" operator="lessOrEqual" value="-1.4031488299369812"/>
											<Node score="1.1362314488529004">
												<SimplePredicate field="double(float(standard_scaler(median_income)))" operator="lessOrEqual" value="0.08744655549526215"/>
											</Node>
										</Node>
										<Node score="0.08143558295446565">
